digraph Tree {
node [shape=box, style="rounded", color="black", fontname=helvetica] ;
edge [fontname=helvetica] ;
0 [label="Age <= 29.5\ngini = 0.363\nsamples = 24420\nvalue = [18597, 5823]\nclass = Target[<=50K]"] ;
1 [label="Age <= 25.5\ngini = 0.1\nsamples = 7308\nvalue = [6922, 386]\nclass = Target[<=50K]"] ;
0 -> 1 [labeldistance=2.5, labelangle=45, headlabel="True"] ;
2 [label="Age <= 23.5\ngini = 0.033\nsamples = 4842\nvalue = [4760, 82]\nclass = Target[<=50K]"] ;
1 -> 2 ;
3 [label="C(Occupation)[T.Prof-specialty] <= 0.5\ngini = 0.011\nsamples = 3591\nvalue = [3572, 19]\nclass = Target[<=50K]"] ;
2 -> 3 ;
4 [label="Age <= 21.5\ngini = 0.008\nsamples = 3411\nvalue = [3398, 13]\nclass = Target[<=50K]"] ;
3 -> 4 ;
5 [label="C(Relationship)[T.Not-in-family] <= 0.5\ngini = 0.001\nsamples = 2297\nvalue = [2296, 1]\nclass = Target[<=50K]"] ;
4 -> 5 ;
6 [label="gini = 0.0\nsamples = 1945\nvalue = [1945, 0]\nclass = Target[<=50K]"] ;
5 -> 6 ;
7 [label="C(Sex)[T.Male] <= 0.5\ngini = 0.006\nsamples = 352\nvalue = [351, 1]\nclass = Target[<=50K]"] ;
5 -> 7 ;
8 [label="gini = 0.0\nsamples = 191\nvalue = [191, 0]\nclass = Target[<=50K]"] ;
7 -> 8 ;
9 [label="gini = 0.012\nsamples = 161\nvalue = [160, 1]\nclass = Target[<=50K]"] ;
7 -> 9 ;
10 [label="C(Sex)[T.Male] <= 0.5\ngini = 0.021\nsamples = 1114\nvalue = [1102, 12]\nclass = Target[<=50K]"] ;
4 -> 10 ;
11 [label="Age <= 22.5\ngini = 0.004\nsamples = 480\nvalue = [479, 1]\nclass = Target[<=50K]"] ;
10 -> 11 ;
12 [label="gini = 0.0\nsamples = 245\nvalue = [245, 0]\nclass = Target[<=50K]"] ;
11 -> 12 ;
13 [label="gini = 0.008\nsamples = 235\nvalue = [234, 1]\nclass = Target[<=50K]"] ;
11 -> 13 ;
14 [label="C(Education)[T.HS-grad] <= 0.5\ngini = 0.034\nsamples = 634\nvalue = [623, 11]\nclass = Target[<=50K]"] ;
10 -> 14 ;
15 [label="C(Relationship)[T.Own-child] <= 0.5\ngini = 0.051\nsamples = 418\nvalue = [407, 11]\nclass = Target[<=50K]"] ;
14 -> 15 ;
16 [label="gini = 0.067\nsamples = 230\nvalue = [222, 8]\nclass = Target[<=50K]"] ;
15 -> 16 ;
17 [label="gini = 0.031\nsamples = 188\nvalue = [185, 3]\nclass = Target[<=50K]"] ;
15 -> 17 ;
18 [label="gini = 0.0\nsamples = 216\nvalue = [216, 0]\nclass = Target[<=50K]"] ;
14 -> 18 ;
19 [label="gini = 0.064\nsamples = 180\nvalue = [174, 6]\nclass = Target[<=50K]"] ;
3 -> 19 ;
20 [label="C(Relationship)[T.Own-child] <= 0.5\ngini = 0.096\nsamples = 1251\nvalue = [1188, 63]\nclass = Target[<=50K]"] ;
2 -> 20 ;
21 [label="C(Relationship)[T.Not-in-family] <= 0.5\ngini = 0.134\nsamples = 862\nvalue = [800, 62]\nclass = Target[<=50K]"] ;
20 -> 21 ;
22 [label="C(Education)[T.HS-grad] <= 0.5\ngini = 0.204\nsamples = 426\nvalue = [377, 49]\nclass = Target[<=50K]"] ;
21 -> 22 ;
23 [label="gini = 0.24\nsamples = 258\nvalue = [222, 36]\nclass = Target[<=50K]"] ;
22 -> 23 ;
24 [label="gini = 0.143\nsamples = 168\nvalue = [155, 13]\nclass = Target[<=50K]"] ;
22 -> 24 ;
25 [label="C(Sex)[T.Male] <= 0.5\ngini = 0.058\nsamples = 436\nvalue = [423, 13]\nclass = Target[<=50K]"] ;
21 -> 25 ;
26 [label="gini = 0.023\nsamples = 169\nvalue = [167, 2]\nclass = Target[<=50K]"] ;
25 -> 26 ;
27 [label="gini = 0.079\nsamples = 267\nvalue = [256, 11]\nclass = Target[<=50K]"] ;
25 -> 27 ;
28 [label="Age <= 24.5\ngini = 0.005\nsamples = 389\nvalue = [388, 1]\nclass = Target[<=50K]"] ;
20 -> 28 ;
29 [label="gini = 0.0\nsamples = 196\nvalue = [196, 0]\nclass = Target[<=50K]"] ;
28 -> 29 ;
30 [label="gini = 0.01\nsamples = 193\nvalue = [192, 1]\nclass = Target[<=50K]"] ;
28 -> 30 ;
31 [label="C(Education)[T.Bachelors] <= 0.5\ngini = 0.216\nsamples = 2466\nvalue = [2162, 304]\nclass = Target[<=50K]"] ;
1 -> 31 ;
32 [label="C(Relationship)[T.Own-child] <= 0.5\ngini = 0.168\nsamples = 1950\nvalue = [1770, 180]\nclass = Target[<=50K]"] ;
31 -> 32 ;
33 [label="C(Relationship)[T.Not-in-family] <= 0.5\ngini = 0.195\nsamples = 1606\nvalue = [1430, 176]\nclass = Target[<=50K]"] ;
32 -> 33 ;
34 [label="C(Relationship)[T.Unmarried] <= 0.5\ngini = 0.259\nsamples = 994\nvalue = [842, 152]\nclass = Target[<=50K]"] ;
33 -> 34 ;
35 [label="C(Education)[T.HS-grad] <= 0.5\ngini = 0.302\nsamples = 797\nvalue = [649, 148]\nclass = Target[<=50K]"] ;
34 -> 35 ;
36 [label="Age <= 27.5\ngini = 0.338\nsamples = 441\nvalue = [346, 95]\nclass = Target[<=50K]"] ;
35 -> 36 ;
37 [label="gini = 0.28\nsamples = 208\nvalue = [173, 35]\nclass = Target[<=50K]"] ;
36 -> 37 ;
38 [label="gini = 0.382\nsamples = 233\nvalue = [173, 60]\nclass = Target[<=50K]"] ;
36 -> 38 ;
39 [label="Age <= 27.5\ngini = 0.253\nsamples = 356\nvalue = [303, 53]\nclass = Target[<=50K]"] ;
35 -> 39 ;
40 [label="gini = 0.251\nsamples = 156\nvalue = [133, 23]\nclass = Target[<=50K]"] ;
39 -> 40 ;
41 [label="gini = 0.255\nsamples = 200\nvalue = [170, 30]\nclass = Target[<=50K]"] ;
39 -> 41 ;
42 [label="gini = 0.04\nsamples = 197\nvalue = [193, 4]\nclass = Target[<=50K]"] ;
34 -> 42 ;
43 [label="C(Education)[T.Some-college] <= 0.5\ngini = 0.075\nsamples = 612\nvalue = [588, 24]\nclass = Target[<=50K]"] ;
33 -> 43 ;
44 [label="C(Education)[T.HS-grad] <= 0.5\ngini = 0.086\nsamples = 442\nvalue = [422, 20]\nclass = Target[<=50K]"] ;
43 -> 44 ;
45 [label="gini = 0.109\nsamples = 208\nvalue = [196, 12]\nclass = Target[<=50K]"] ;
44 -> 45 ;
46 [label="gini = 0.066\nsamples = 234\nvalue = [226, 8]\nclass = Target[<=50K]"] ;
44 -> 46 ;
47 [label="gini = 0.046\nsamples = 170\nvalue = [166, 4]\nclass = Target[<=50K]"] ;
43 -> 47 ;
48 [label="C(Education)[T.HS-grad] <= 0.5\ngini = 0.023\nsamples = 344\nvalue = [340, 4]\nclass = Target[<=50K]"] ;
32 -> 48 ;
49 [label="gini = 0.031\nsamples = 193\nvalue = [190, 3]\nclass = Target[<=50K]"] ;
48 -> 49 ;
50 [label="gini = 0.013\nsamples = 151\nvalue = [150, 1]\nclass = Target[<=50K]"] ;
48 -> 50 ;
51 [label="C(Relationship)[T.Not-in-family] <= 0.5\ngini = 0.365\nsamples = 516\nvalue = [392, 124]\nclass = Target[<=50K]"] ;
31 -> 51 ;
52 [label="gini = 0.465\nsamples = 272\nvalue = [172, 100]\nclass = Target[<=50K]"] ;
51 -> 52 ;
53 [label="gini = 0.177\nsamples = 244\nvalue = [220, 24]\nclass = Target[<=50K]"] ;
51 -> 53 ;
54 [label="C(Sex)[T.Male] <= 0.5\ngini = 0.434\nsamples = 17112\nvalue = [11675, 5437]\nclass = Target[<=50K]"] ;
0 -> 54 [labeldistance=2.5, labelangle=-45, headlabel="False"] ;
55 [label="C(Relationship)[T.Wife] <= 0.5\ngini = 0.261\nsamples = 5113\nvalue = [4324, 789]\nclass = Target[<=50K]"] ;
54 -> 55 ;
56 [label="C(Education)[T.Masters] <= 0.5\ngini = 0.136\nsamples = 4159\nvalue = [3853, 306]\nclass = Target[<=50K]"] ;
55 -> 56 ;
57 [label="C(Education)[T.Bachelors] <= 0.5\ngini = 0.113\nsamples = 3894\nvalue = [3659, 235]\nclass = Target[<=50K]"] ;
56 -> 57 ;
58 [label="C(Occupation)[T.Prof-specialty] <= 0.5\ngini = 0.084\nsamples = 3330\nvalue = [3184, 146]\nclass = Target[<=50K]"] ;
57 -> 58 ;
59 [label="C(Occupation)[T.Exec-managerial] <= 0.5\ngini = 0.065\nsamples = 3077\nvalue = [2973, 104]\nclass = Target[<=50K]"] ;
58 -> 59 ;
60 [label="Age <= 50.5\ngini = 0.05\nsamples = 2739\nvalue = [2668, 71]\nclass = Target[<=50K]"] ;
59 -> 60 ;
61 [label="C(Relationship)[T.Unmarried] <= 0.5\ngini = 0.039\nsamples = 1888\nvalue = [1850, 38]\nclass = Target[<=50K]"] ;
60 -> 61 ;
62 [label="C(Occupation)[T.Other-service] <= 0.5\ngini = 0.056\nsamples = 980\nvalue = [952, 28]\nclass = Target[<=50K]"] ;
61 -> 62 ;
63 [label="Age <= 34.5\ngini = 0.067\nsamples = 745\nvalue = [719, 26]\nclass = Target[<=50K]"] ;
62 -> 63 ;
64 [label="gini = 0.034\nsamples = 231\nvalue = [227, 4]\nclass = Target[<=50K]"] ;
63 -> 64 ;
65 [label="C(Occupation)[T.Adm-clerical] <= 0.5\ngini = 0.082\nsamples = 514\nvalue = [492, 22]\nclass = Target[<=50K]"] ;
63 -> 65 ;
66 [label="gini = 0.103\nsamples = 294\nvalue = [278, 16]\nclass = Target[<=50K]"] ;
65 -> 66 ;
67 [label="gini = 0.053\nsamples = 220\nvalue = [214, 6]\nclass = Target[<=50K]"] ;
65 -> 67 ;
68 [label="gini = 0.017\nsamples = 235\nvalue = [233, 2]\nclass = Target[<=50K]"] ;
62 -> 68 ;
69 [label="Age <= 40.5\ngini = 0.022\nsamples = 908\nvalue = [898, 10]\nclass = Target[<=50K]"] ;
61 -> 69 ;
70 [label="Age <= 33.5\ngini = 0.011\nsamples = 547\nvalue = [544, 3]\nclass = Target[<=50K]"] ;
69 -> 70 ;
71 [label="gini = 0.02\nsamples = 195\nvalue = [193, 2]\nclass = Target[<=50K]"] ;
70 -> 71 ;
72 [label="C(Education)[T.HS-grad] <= 0.5\ngini = 0.006\nsamples = 352\nvalue = [351, 1]\nclass = Target[<=50K]"] ;
70 -> 72 ;
73 [label="gini = 0.011\nsamples = 189\nvalue = [188, 1]\nclass = Target[<=50K]"] ;
72 -> 73 ;
74 [label="gini = 0.0\nsamples = 163\nvalue = [163, 0]\nclass = Target[<=50K]"] ;
72 -> 74 ;
75 [label="Age <= 45.5\ngini = 0.038\nsamples = 361\nvalue = [354, 7]\nclass = Target[<=50K]"] ;
69 -> 75 ;
76 [label="gini = 0.047\nsamples = 207\nvalue = [202, 5]\nclass = Target[<=50K]"] ;
75 -> 76 ;
77 [label="gini = 0.026\nsamples = 154\nvalue = [152, 2]\nclass = Target[<=50K]"] ;
75 -> 77 ;
78 [label="C(Education)[T.Some-college] <= 0.5\ngini = 0.075\nsamples = 851\nvalue = [818, 33]\nclass = Target[<=50K]"] ;
60 -> 78 ;
79 [label="Age <= 58.5\ngini = 0.056\nsamples = 661\nvalue = [642, 19]\nclass = Target[<=50K]"] ;
78 -> 79 ;
80 [label="gini = 0.082\nsamples = 302\nvalue = [289, 13]\nclass = Target[<=50K]"] ;
79 -> 80 ;
81 [label="Age <= 65.5\ngini = 0.033\nsamples = 359\nvalue = [353, 6]\nclass = Target[<=50K]"] ;
79 -> 81 ;
82 [label="gini = 0.01\nsamples = 196\nvalue = [195, 1]\nclass = Target[<=50K]"] ;
81 -> 82 ;
83 [label="gini = 0.059\nsamples = 163\nvalue = [158, 5]\nclass = Target[<=50K]"] ;
81 -> 83 ;
84 [label="gini = 0.137\nsamples = 190\nvalue = [176, 14]\nclass = Target[<=50K]"] ;
78 -> 84 ;
85 [label="C(Relationship)[T.Not-in-family] <= 0.5\ngini = 0.176\nsamples = 338\nvalue = [305, 33]\nclass = Target[<=50K]"] ;
59 -> 85 ;
86 [label="gini = 0.094\nsamples = 162\nvalue = [154, 8]\nclass = Target[<=50K]"] ;
85 -> 86 ;
87 [label="gini = 0.244\nsamples = 176\nvalue = [151, 25]\nclass = Target[<=50K]"] ;
85 -> 87 ;
88 [label="gini = 0.277\nsamples = 253\nvalue = [211, 42]\nclass = Target[<=50K]"] ;
58 -> 88 ;
89 [label="Age <= 39.5\ngini = 0.266\nsamples = 564\nvalue = [475, 89]\nclass = Target[<=50K]"] ;
57 -> 89 ;
90 [label="gini = 0.224\nsamples = 272\nvalue = [237, 35]\nclass = Target[<=50K]"] ;
89 -> 90 ;
91 [label="gini = 0.301\nsamples = 292\nvalue = [238, 54]\nclass = Target[<=50K]"] ;
89 -> 91 ;
92 [label="gini = 0.392\nsamples = 265\nvalue = [194, 71]\nclass = Target[<=50K]"] ;
56 -> 92 ;
93 [label="C(Occupation)[T.Prof-specialty] <= 0.5\ngini = 0.5\nsamples = 954\nvalue = [471, 483]\nclass = Target[>50K]"] ;
55 -> 93 ;
94 [label="C(Education)[T.HS-grad] <= 0.5\ngini = 0.494\nsamples = 762\nvalue = [423, 339]\nclass = Target[<=50K]"] ;
93 -> 94 ;
95 [label="Age <= 45.5\ngini = 0.5\nsamples = 461\nvalue = [236, 225]\nclass = Target[<=50K]"] ;
94 -> 95 ;
96 [label="Age <= 37.5\ngini = 0.5\nsamples = 306\nvalue = [149, 157]\nclass = Target[>50K]"] ;
95 -> 96 ;
97 [label="gini = 0.497\nsamples = 155\nvalue = [83, 72]\nclass = Target[<=50K]"] ;
96 -> 97 ;
98 [label="gini = 0.492\nsamples = 151\nvalue = [66, 85]\nclass = Target[>50K]"] ;
96 -> 98 ;
99 [label="gini = 0.492\nsamples = 155\nvalue = [87, 68]\nclass = Target[<=50K]"] ;
95 -> 99 ;
100 [label="gini = 0.471\nsamples = 301\nvalue = [187, 114]\nclass = Target[<=50K]"] ;
94 -> 100 ;
101 [label="gini = 0.375\nsamples = 192\nvalue = [48, 144]\nclass = Target[>50K]"] ;
93 -> 101 ;
102 [label="C(Occupation)[T.Exec-managerial] <= 0.5\ngini = 0.475\nsamples = 11999\nvalue = [7351, 4648]\nclass = Target[<=50K]"] ;
54 -> 102 ;
103 [label="C(Occupation)[T.Prof-specialty] <= 0.5\ngini = 0.448\nsamples = 10064\nvalue = [6653, 3411]\nclass = Target[<=50K]"] ;
102 -> 103 ;
104 [label="C(Relationship)[T.Not-in-family] <= 0.5\ngini = 0.405\nsamples = 8431\nvalue = [6053, 2378]\nclass = Target[<=50K]"] ;
103 -> 104 ;
105 [label="C(Education)[T.Bachelors] <= 0.5\ngini = 0.438\nsamples = 6839\nvalue = [4624, 2215]\nclass = Target[<=50K]"] ;
104 -> 105 ;
106 [label="C(Occupation)[T.Sales] <= 0.5\ngini = 0.412\nsamples = 6052\nvalue = [4294, 1758]\nclass = Target[<=50K]"] ;
105 -> 106 ;
107 [label="C(Relationship)[T.Own-child] <= 0.5\ngini = 0.39\nsamples = 5294\nvalue = [3891, 1403]\nclass = Target[<=50K]"] ;
106 -> 107 ;
108 [label="C(Occupation)[T.Tech-support] <= 0.5\ngini = 0.403\nsamples = 4975\nvalue = [3582, 1393]\nclass = Target[<=50K]"] ;
107 -> 108 ;
109 [label="C(Relationship)[T.Unmarried] <= 0.5\ngini = 0.393\nsamples = 4792\nvalue = [3503, 1289]\nclass = Target[<=50K]"] ;
108 -> 109 ;
110 [label="C(Occupation)[T.Other-service] <= 0.5\ngini = 0.406\nsamples = 4499\nvalue = [3226, 1273]\nclass = Target[<=50K]"] ;
109 -> 110 ;
111 [label="C(Education)[T.Some-college] <= 0.5\ngini = 0.418\nsamples = 4162\nvalue = [2924, 1238]\nclass = Target[<=50K]"] ;
110 -> 111 ;
112 [label="gini = 0.396\nsamples = 3301\nvalue = [2405, 896]\nclass = Target[<=50K]"] ;
111 -> 112 ;
113 [label="gini = 0.479\nsamples = 861\nvalue = [519, 342]\nclass = Target[<=50K]"] ;
111 -> 113 ;
114 [label="Age <= 44.5\ngini = 0.186\nsamples = 337\nvalue = [302, 35]\nclass = Target[<=50K]"] ;
110 -> 114 ;
115 [label="gini = 0.173\nsamples = 167\nvalue = [151, 16]\nclass = Target[<=50K]"] ;
114 -> 115 ;
116 [label="gini = 0.199\nsamples = 170\nvalue = [151, 19]\nclass = Target[<=50K]"] ;
114 -> 116 ;
117 [label="gini = 0.103\nsamples = 293\nvalue = [277, 16]\nclass = Target[<=50K]"] ;
109 -> 117 ;
118 [label="gini = 0.491\nsamples = 183\nvalue = [79, 104]\nclass = Target[>50K]"] ;
108 -> 118 ;
119 [label="Age <= 36.5\ngini = 0.061\nsamples = 319\nvalue = [309, 10]\nclass = Target[<=50K]"] ;
107 -> 119 ;
120 [label="gini = 0.057\nsamples = 169\nvalue = [164, 5]\nclass = Target[<=50K]"] ;
119 -> 120 ;
121 [label="gini = 0.064\nsamples = 150\nvalue = [145, 5]\nclass = Target[<=50K]"] ;
119 -> 121 ;
122 [label="Age <= 35.5\ngini = 0.498\nsamples = 758\nvalue = [403, 355]\nclass = Target[<=50K]"] ;
106 -> 122 ;
123 [label="gini = 0.451\nsamples = 154\nvalue = [101, 53]\nclass = Target[<=50K]"] ;
122 -> 123 ;
124 [label="Age <= 54.5\ngini = 0.5\nsamples = 604\nvalue = [302, 302]\nclass = Target[<=50K]"] ;
122 -> 124 ;
125 [label="C(Education)[T.HS-grad] <= 0.5\ngini = 0.497\nsamples = 440\nvalue = [202, 238]\nclass = Target[>50K]"] ;
124 -> 125 ;
126 [label="gini = 0.482\nsamples = 276\nvalue = [112, 164]\nclass = Target[>50K]"] ;
125 -> 126 ;
127 [label="gini = 0.495\nsamples = 164\nvalue = [90, 74]\nclass = Target[<=50K]"] ;
125 -> 127 ;
128 [label="gini = 0.476\nsamples = 164\nvalue = [100, 64]\nclass = Target[<=50K]"] ;
124 -> 128 ;
129 [label="C(Occupation)[T.Sales] <= 0.5\ngini = 0.487\nsamples = 787\nvalue = [330, 457]\nclass = Target[>50K]"] ;
105 -> 129 ;
130 [label="Age <= 40.5\ngini = 0.499\nsamples = 482\nvalue = [229, 253]\nclass = Target[>50K]"] ;
129 -> 130 ;
131 [label="gini = 0.498\nsamples = 182\nvalue = [97, 85]\nclass = Target[<=50K]"] ;
130 -> 131 ;
132 [label="gini = 0.493\nsamples = 300\nvalue = [132, 168]\nclass = Target[>50K]"] ;
130 -> 132 ;
133 [label="Age <= 41.5\ngini = 0.443\nsamples = 305\nvalue = [101, 204]\nclass = Target[>50K]"] ;
129 -> 133 ;
134 [label="gini = 0.454\nsamples = 155\nvalue = [54, 101]\nclass = Target[>50K]"] ;
133 -> 134 ;
135 [label="gini = 0.43\nsamples = 150\nvalue = [47, 103]\nclass = Target[>50K]"] ;
133 -> 135 ;
136 [label="C(Occupation)[T.Sales] <= 0.5\ngini = 0.184\nsamples = 1592\nvalue = [1429, 163]\nclass = Target[<=50K]"] ;
104 -> 136 ;
137 [label="Age <= 38.5\ngini = 0.146\nsamples = 1378\nvalue = [1269, 109]\nclass = Target[<=50K]"] ;
136 -> 137 ;
138 [label="C(Education)[T.HS-grad] <= 0.5\ngini = 0.112\nsamples = 585\nvalue = [550, 35]\nclass = Target[<=50K]"] ;
137 -> 138 ;
139 [label="Age <= 33.5\ngini = 0.144\nsamples = 332\nvalue = [306, 26]\nclass = Target[<=50K]"] ;
138 -> 139 ;
140 [label="gini = 0.135\nsamples = 178\nvalue = [165, 13]\nclass = Target[<=50K]"] ;
139 -> 140 ;
141 [label="gini = 0.155\nsamples = 154\nvalue = [141, 13]\nclass = Target[<=50K]"] ;
139 -> 141 ;
142 [label="gini = 0.069\nsamples = 253\nvalue = [244, 9]\nclass = Target[<=50K]"] ;
138 -> 142 ;
143 [label="C(Occupation)[T.Craft-repair] <= 0.5\ngini = 0.169\nsamples = 793\nvalue = [719, 74]\nclass = Target[<=50K]"] ;
137 -> 143 ;
144 [label="Age <= 55.5\ngini = 0.147\nsamples = 587\nvalue = [540, 47]\nclass = Target[<=50K]"] ;
143 -> 144 ;
145 [label="C(Education)[T.HS-grad] <= 0.5\ngini = 0.171\nsamples = 403\nvalue = [365, 38]\nclass = Target[<=50K]"] ;
144 -> 145 ;
146 [label="gini = 0.191\nsamples = 243\nvalue = [217, 26]\nclass = Target[<=50K]"] ;
145 -> 146 ;
147 [label="gini = 0.139\nsamples = 160\nvalue = [148, 12]\nclass = Target[<=50K]"] ;
145 -> 147 ;
148 [label="gini = 0.093\nsamples = 184\nvalue = [175, 9]\nclass = Target[<=50K]"] ;
144 -> 148 ;
149 [label="gini = 0.228\nsamples = 206\nvalue = [179, 27]\nclass = Target[<=50K]"] ;
143 -> 149 ;
150 [label="gini = 0.377\nsamples = 214\nvalue = [160, 54]\nclass = Target[<=50K]"] ;
136 -> 150 ;
151 [label="C(Relationship)[T.Not-in-family] <= 0.5\ngini = 0.465\nsamples = 1633\nvalue = [600, 1033]\nclass = Target[>50K]"] ;
103 -> 151 ;
152 [label="C(Education)[T.Prof-school] <= 0.5\ngini = 0.419\nsamples = 1323\nvalue = [395, 928]\nclass = Target[>50K]"] ;
151 -> 152 ;
153 [label="Age <= 36.5\ngini = 0.447\nsamples = 1098\nvalue = [371, 727]\nclass = Target[>50K]"] ;
152 -> 153 ;
154 [label="gini = 0.496\nsamples = 281\nvalue = [128, 153]\nclass = Target[>50K]"] ;
153 -> 154 ;
155 [label="C(Education)[T.Masters] <= 0.5\ngini = 0.418\nsamples = 817\nvalue = [243, 574]\nclass = Target[>50K]"] ;
153 -> 155 ;
156 [label="C(Education)[T.Bachelors] <= 0.5\ngini = 0.443\nsamples = 600\nvalue = [199, 401]\nclass = Target[>50K]"] ;
155 -> 156 ;
157 [label="gini = 0.461\nsamples = 294\nvalue = [106, 188]\nclass = Target[>50K]"] ;
156 -> 157 ;
158 [label="Age <= 45.5\ngini = 0.423\nsamples = 306\nvalue = [93, 213]\nclass = Target[>50K]"] ;
156 -> 158 ;
159 [label="gini = 0.407\nsamples = 151\nvalue = [43, 108]\nclass = Target[>50K]"] ;
158 -> 159 ;
160 [label="gini = 0.437\nsamples = 155\nvalue = [50, 105]\nclass = Target[>50K]"] ;
158 -> 160 ;
161 [label="gini = 0.323\nsamples = 217\nvalue = [44, 173]\nclass = Target[>50K]"] ;
155 -> 161 ;
162 [label="gini = 0.191\nsamples = 225\nvalue = [24, 201]\nclass = Target[>50K]"] ;
152 -> 162 ;
163 [label="Age <= 41.5\ngini = 0.448\nsamples = 310\nvalue = [205, 105]\nclass = Target[<=50K]"] ;
151 -> 163 ;
164 [label="gini = 0.431\nsamples = 159\nvalue = [109, 50]\nclass = Target[<=50K]"] ;
163 -> 164 ;
165 [label="gini = 0.463\nsamples = 151\nvalue = [96, 55]\nclass = Target[<=50K]"] ;
163 -> 165 ;
166 [label="C(Relationship)[T.Not-in-family] <= 0.5\ngini = 0.461\nsamples = 1935\nvalue = [698, 1237]\nclass = Target[>50K]"] ;
102 -> 166 ;
167 [label="C(Education)[T.HS-grad] <= 0.5\ngini = 0.427\nsamples = 1647\nvalue = [509, 1138]\nclass = Target[>50K]"] ;
166 -> 167 ;
168 [label="C(Education)[T.Some-college] <= 0.5\ngini = 0.392\nsamples = 1344\nvalue = [360, 984]\nclass = Target[>50K]"] ;
167 -> 168 ;
169 [label="C(Education)[T.Masters] <= 0.5\ngini = 0.348\nsamples = 1021\nvalue = [229, 792]\nclass = Target[>50K]"] ;
168 -> 169 ;
170 [label="C(Education)[T.Bachelors] <= 0.5\ngini = 0.385\nsamples = 779\nvalue = [203, 576]\nclass = Target[>50K]"] ;
169 -> 170 ;
171 [label="gini = 0.476\nsamples = 218\nvalue = [85, 133]\nclass = Target[>50K]"] ;
170 -> 171 ;
172 [label="Age <= 43.5\ngini = 0.332\nsamples = 561\nvalue = [118, 443]\nclass = Target[>50K]"] ;
170 -> 172 ;
173 [label="gini = 0.375\nsamples = 260\nvalue = [65, 195]\nclass = Target[>50K]"] ;
172 -> 173 ;
174 [label="gini = 0.29\nsamples = 301\nvalue = [53, 248]\nclass = Target[>50K]"] ;
172 -> 174 ;
175 [label="gini = 0.192\nsamples = 242\nvalue = [26, 216]\nclass = Target[>50K]"] ;
169 -> 175 ;
176 [label="Age <= 45.5\ngini = 0.482\nsamples = 323\nvalue = [131, 192]\nclass = Target[>50K]"] ;
168 -> 176 ;
177 [label="gini = 0.496\nsamples = 173\nvalue = [79, 94]\nclass = Target[>50K]"] ;
176 -> 177 ;
178 [label="gini = 0.453\nsamples = 150\nvalue = [52, 98]\nclass = Target[>50K]"] ;
176 -> 178 ;
179 [label="gini = 0.5\nsamples = 303\nvalue = [149, 154]\nclass = Target[>50K]"] ;
167 -> 179 ;
180 [label="gini = 0.451\nsamples = 288\nvalue = [189, 99]\nclass = Target[<=50K]"] ;
166 -> 180 ;
}